Language model created by QuickLM on Tue Jan 29 03:25:57 EST 2013
Copyright (c) 1996-2010 Carnegie Mellon University and Alexander I. Rudnicky

The model is in standard ARPA format, designed by Doug Paul while he was at MITRE.

The code that was used to produce this language model is available in Open Source.
Please visit http://www.speech.cs.cmu.edu/tools/ for more information

The (fixed) discount mass is 0.5. The backoffs are computed using the ratio method.
This model based on a corpus of 89 sentences and 91 words

\data\
ngram 1=91
ngram 2=178
ngram 3=89

\1-grams:
-0.7782 </s> -0.3010
-0.7782 <s> -0.2218
-2.7275 ACCEPT -0.2218
-2.7275 ALL -0.2218
-2.7275 ALPHA -0.2218
-2.7275 BACK -0.2218
-2.7275 BRAVO -0.2218
-2.7275 CANCEL -0.2218
-2.7275 CHARLIE -0.2218
-2.7275 CLEAR -0.2218
-2.7275 COLON -0.2218
-2.7275 COMMA -0.2218
-2.7275 CONTEXT -0.2218
-2.7275 DELETE -0.2218
-2.7275 DELTA -0.2218
-2.7275 DOT -0.2218
-2.7275 DOWN -0.2218
-2.7275 ECHO -0.2218
-2.7275 EIGHT -0.2218
-2.7275 EIGHTY -0.2218
-2.7275 FIFTY -0.2218
-2.7275 FIVE -0.2218
-2.7275 FORTY -0.2218
-2.7275 FOUR -0.2218
-2.7275 FOXTROT -0.2218
-2.7275 GOLF -0.2218
-2.7275 HOME -0.2218
-2.7275 HOTEL -0.2218
-2.7275 HYPHEN -0.2218
-2.7275 INDIA -0.2218
-2.7275 JULIET -0.2218
-2.7275 KILO -0.2218
-2.7275 LEFT -0.2218
-2.7275 LIMA -0.2218
-2.7275 LOWER -0.2218
-2.7275 MAX -0.2218
-2.7275 MIKE -0.2218
-2.7275 MUSIC -0.2218
-2.7275 MUTE -0.2218
-2.7275 NEXT -0.2218
-2.7275 NINE -0.2218
-2.7275 NINETY -0.2218
-2.7275 NORMAL -0.2218
-2.7275 NOVEMBER -0.2218
-2.7275 OFF -0.2218
-2.7275 OKAY -0.2218
-2.7275 ONE -0.2218
-2.7275 OSCAR -0.2218
-2.7275 PAPA -0.2218
-2.7275 PAUSE -0.2218
-2.7275 PICTURES -0.2218
-2.7275 PLAY -0.2218
-2.7275 PREVIOUS -0.2218
-2.7275 PROGRAMS -0.2218
-2.7275 QUEBEC -0.2218
-2.7275 REPEAT -0.2218
-2.7275 RIGHT -0.2218
-2.7275 ROMEO -0.2218
-2.7275 SELECT -0.2218
-2.7275 SETTINGS -0.2218
-2.7275 SEVEN -0.2218
-2.7275 SEVENTY -0.2218
-2.7275 SHUFFLE -0.2218
-2.7275 SIERRA -0.2218
-2.7275 SIX -0.2218
-2.7275 SIXTY -0.2218
-2.7275 SPACE -0.2218
-2.7275 SPELL -0.2218
-2.7275 STOP -0.2218
-2.7275 TANGO -0.2218
-2.7275 TEN -0.2218
-2.7275 THIRTY -0.2218
-2.7275 THREE -0.2218
-2.7275 TWENTY -0.2218
-2.7275 TWO -0.2218
-2.7275 T_V -0.2218
-2.7275 UNIFORM -0.2218
-2.7275 UNMUTE -0.2218
-2.7275 UNSHUFFLE -0.2218
-2.7275 UP -0.2218
-2.7275 UPPER -0.2218
-2.7275 VICTOR -0.2218
-2.7275 VIDEOS -0.2218
-2.7275 VOLUME -0.2218
-2.7275 WEATHER -0.2218
-2.7275 WHISKEY -0.2218
-2.7275 X_B_M_C -0.2218
-2.7275 X_RAY -0.2218
-2.7275 YANKEE -0.2218
-2.7275 ZERO -0.2218
-2.7275 ZULU -0.2218

\2-grams:
-2.2504 <s> ACCEPT 0.0000
-2.2504 <s> ALL 0.0000
-2.2504 <s> ALPHA 0.0000
-2.2504 <s> BACK 0.0000
-2.2504 <s> BRAVO 0.0000
-2.2504 <s> CANCEL 0.0000
-2.2504 <s> CHARLIE 0.0000
-2.2504 <s> CLEAR 0.0000
-2.2504 <s> COLON 0.0000
-2.2504 <s> COMMA 0.0000
-2.2504 <s> CONTEXT 0.0000
-2.2504 <s> DELETE 0.0000
-2.2504 <s> DELTA 0.0000
-2.2504 <s> DOT 0.0000
-2.2504 <s> DOWN 0.0000
-2.2504 <s> ECHO 0.0000
-2.2504 <s> EIGHT 0.0000
-2.2504 <s> EIGHTY 0.0000
-2.2504 <s> FIFTY 0.0000
-2.2504 <s> FIVE 0.0000
-2.2504 <s> FORTY 0.0000
-2.2504 <s> FOUR 0.0000
-2.2504 <s> FOXTROT 0.0000
-2.2504 <s> GOLF 0.0000
-2.2504 <s> HOME 0.0000
-2.2504 <s> HOTEL 0.0000
-2.2504 <s> HYPHEN 0.0000
-2.2504 <s> INDIA 0.0000
-2.2504 <s> JULIET 0.0000
-2.2504 <s> KILO 0.0000
-2.2504 <s> LEFT 0.0000
-2.2504 <s> LIMA 0.0000
-2.2504 <s> LOWER 0.0000
-2.2504 <s> MAX 0.0000
-2.2504 <s> MIKE 0.0000
-2.2504 <s> MUSIC 0.0000
-2.2504 <s> MUTE 0.0000
-2.2504 <s> NEXT 0.0000
-2.2504 <s> NINE 0.0000
-2.2504 <s> NINETY 0.0000
-2.2504 <s> NORMAL 0.0000
-2.2504 <s> NOVEMBER 0.0000
-2.2504 <s> OFF 0.0000
-2.2504 <s> OKAY 0.0000
-2.2504 <s> ONE 0.0000
-2.2504 <s> OSCAR 0.0000
-2.2504 <s> PAPA 0.0000
-2.2504 <s> PAUSE 0.0000
-2.2504 <s> PICTURES 0.0000
-2.2504 <s> PLAY 0.0000
-2.2504 <s> PREVIOUS 0.0000
-2.2504 <s> PROGRAMS 0.0000
-2.2504 <s> QUEBEC 0.0000
-2.2504 <s> REPEAT 0.0000
-2.2504 <s> RIGHT 0.0000
-2.2504 <s> ROMEO 0.0000
-2.2504 <s> SELECT 0.0000
-2.2504 <s> SETTINGS 0.0000
-2.2504 <s> SEVEN 0.0000
-2.2504 <s> SEVENTY 0.0000
-2.2504 <s> SHUFFLE 0.0000
-2.2504 <s> SIERRA 0.0000
-2.2504 <s> SIX 0.0000
-2.2504 <s> SIXTY 0.0000
-2.2504 <s> SPACE 0.0000
-2.2504 <s> SPELL 0.0000
-2.2504 <s> STOP 0.0000
-2.2504 <s> TANGO 0.0000
-2.2504 <s> TEN 0.0000
-2.2504 <s> THIRTY 0.0000
-2.2504 <s> THREE 0.0000
-2.2504 <s> TWENTY 0.0000
-2.2504 <s> TWO 0.0000
-2.2504 <s> T_V 0.0000
-2.2504 <s> UNIFORM 0.0000
-2.2504 <s> UNMUTE 0.0000
-2.2504 <s> UNSHUFFLE 0.0000
-2.2504 <s> UP 0.0000
-2.2504 <s> UPPER 0.0000
-2.2504 <s> VICTOR 0.0000
-2.2504 <s> VIDEOS 0.0000
-2.2504 <s> VOLUME 0.0000
-2.2504 <s> WEATHER 0.0000
-2.2504 <s> WHISKEY 0.0000
-2.2504 <s> X_B_M_C 0.0000
-2.2504 <s> X_RAY 0.0000
-2.2504 <s> YANKEE 0.0000
-2.2504 <s> ZERO 0.0000
-2.2504 <s> ZULU 0.0000
-0.3010 ACCEPT </s> -0.3010
-0.3010 ALL </s> -0.3010
-0.3010 ALPHA </s> -0.3010
-0.3010 BACK </s> -0.3010
-0.3010 BRAVO </s> -0.3010
-0.3010 CANCEL </s> -0.3010
-0.3010 CHARLIE </s> -0.3010
-0.3010 CLEAR </s> -0.3010
-0.3010 COLON </s> -0.3010
-0.3010 COMMA </s> -0.3010
-0.3010 CONTEXT </s> -0.3010
-0.3010 DELETE </s> -0.3010
-0.3010 DELTA </s> -0.3010
-0.3010 DOT </s> -0.3010
-0.3010 DOWN </s> -0.3010
-0.3010 ECHO </s> -0.3010
-0.3010 EIGHT </s> -0.3010
-0.3010 EIGHTY </s> -0.3010
-0.3010 FIFTY </s> -0.3010
-0.3010 FIVE </s> -0.3010
-0.3010 FORTY </s> -0.3010
-0.3010 FOUR </s> -0.3010
-0.3010 FOXTROT </s> -0.3010
-0.3010 GOLF </s> -0.3010
-0.3010 HOME </s> -0.3010
-0.3010 HOTEL </s> -0.3010
-0.3010 HYPHEN </s> -0.3010
-0.3010 INDIA </s> -0.3010
-0.3010 JULIET </s> -0.3010
-0.3010 KILO </s> -0.3010
-0.3010 LEFT </s> -0.3010
-0.3010 LIMA </s> -0.3010
-0.3010 LOWER </s> -0.3010
-0.3010 MAX </s> -0.3010
-0.3010 MIKE </s> -0.3010
-0.3010 MUSIC </s> -0.3010
-0.3010 MUTE </s> -0.3010
-0.3010 NEXT </s> -0.3010
-0.3010 NINE </s> -0.3010
-0.3010 NINETY </s> -0.3010
-0.3010 NORMAL </s> -0.3010
-0.3010 NOVEMBER </s> -0.3010
-0.3010 OFF </s> -0.3010
-0.3010 OKAY </s> -0.3010
-0.3010 ONE </s> -0.3010
-0.3010 OSCAR </s> -0.3010
-0.3010 PAPA </s> -0.3010
-0.3010 PAUSE </s> -0.3010
-0.3010 PICTURES </s> -0.3010
-0.3010 PLAY </s> -0.3010
-0.3010 PREVIOUS </s> -0.3010
-0.3010 PROGRAMS </s> -0.3010
-0.3010 QUEBEC </s> -0.3010
-0.3010 REPEAT </s> -0.3010
-0.3010 RIGHT </s> -0.3010
-0.3010 ROMEO </s> -0.3010
-0.3010 SELECT </s> -0.3010
-0.3010 SETTINGS </s> -0.3010
-0.3010 SEVEN </s> -0.3010
-0.3010 SEVENTY </s> -0.3010
-0.3010 SHUFFLE </s> -0.3010
-0.3010 SIERRA </s> -0.3010
-0.3010 SIX </s> -0.3010
-0.3010 SIXTY </s> -0.3010
-0.3010 SPACE </s> -0.3010
-0.3010 SPELL </s> -0.3010
-0.3010 STOP </s> -0.3010
-0.3010 TANGO </s> -0.3010
-0.3010 TEN </s> -0.3010
-0.3010 THIRTY </s> -0.3010
-0.3010 THREE </s> -0.3010
-0.3010 TWENTY </s> -0.3010
-0.3010 TWO </s> -0.3010
-0.3010 T_V </s> -0.3010
-0.3010 UNIFORM </s> -0.3010
-0.3010 UNMUTE </s> -0.3010
-0.3010 UNSHUFFLE </s> -0.3010
-0.3010 UP </s> -0.3010
-0.3010 UPPER </s> -0.3010
-0.3010 VICTOR </s> -0.3010
-0.3010 VIDEOS </s> -0.3010
-0.3010 VOLUME </s> -0.3010
-0.3010 WEATHER </s> -0.3010
-0.3010 WHISKEY </s> -0.3010
-0.3010 X_B_M_C </s> -0.3010
-0.3010 X_RAY </s> -0.3010
-0.3010 YANKEE </s> -0.3010
-0.3010 ZERO </s> -0.3010
-0.3010 ZULU </s> -0.3010

\3-grams:
-0.3010 <s> ACCEPT </s>
-0.3010 <s> ALL </s>
-0.3010 <s> ALPHA </s>
-0.3010 <s> BACK </s>
-0.3010 <s> BRAVO </s>
-0.3010 <s> CANCEL </s>
-0.3010 <s> CHARLIE </s>
-0.3010 <s> CLEAR </s>
-0.3010 <s> COLON </s>
-0.3010 <s> COMMA </s>
-0.3010 <s> CONTEXT </s>
-0.3010 <s> DELETE </s>
-0.3010 <s> DELTA </s>
-0.3010 <s> DOT </s>
-0.3010 <s> DOWN </s>
-0.3010 <s> ECHO </s>
-0.3010 <s> EIGHT </s>
-0.3010 <s> EIGHTY </s>
-0.3010 <s> FIFTY </s>
-0.3010 <s> FIVE </s>
-0.3010 <s> FORTY </s>
-0.3010 <s> FOUR </s>
-0.3010 <s> FOXTROT </s>
-0.3010 <s> GOLF </s>
-0.3010 <s> HOME </s>
-0.3010 <s> HOTEL </s>
-0.3010 <s> HYPHEN </s>
-0.3010 <s> INDIA </s>
-0.3010 <s> JULIET </s>
-0.3010 <s> KILO </s>
-0.3010 <s> LEFT </s>
-0.3010 <s> LIMA </s>
-0.3010 <s> LOWER </s>
-0.3010 <s> MAX </s>
-0.3010 <s> MIKE </s>
-0.3010 <s> MUSIC </s>
-0.3010 <s> MUTE </s>
-0.3010 <s> NEXT </s>
-0.3010 <s> NINE </s>
-0.3010 <s> NINETY </s>
-0.3010 <s> NORMAL </s>
-0.3010 <s> NOVEMBER </s>
-0.3010 <s> OFF </s>
-0.3010 <s> OKAY </s>
-0.3010 <s> ONE </s>
-0.3010 <s> OSCAR </s>
-0.3010 <s> PAPA </s>
-0.3010 <s> PAUSE </s>
-0.3010 <s> PICTURES </s>
-0.3010 <s> PLAY </s>
-0.3010 <s> PREVIOUS </s>
-0.3010 <s> PROGRAMS </s>
-0.3010 <s> QUEBEC </s>
-0.3010 <s> REPEAT </s>
-0.3010 <s> RIGHT </s>
-0.3010 <s> ROMEO </s>
-0.3010 <s> SELECT </s>
-0.3010 <s> SETTINGS </s>
-0.3010 <s> SEVEN </s>
-0.3010 <s> SEVENTY </s>
-0.3010 <s> SHUFFLE </s>
-0.3010 <s> SIERRA </s>
-0.3010 <s> SIX </s>
-0.3010 <s> SIXTY </s>
-0.3010 <s> SPACE </s>
-0.3010 <s> SPELL </s>
-0.3010 <s> STOP </s>
-0.3010 <s> TANGO </s>
-0.3010 <s> TEN </s>
-0.3010 <s> THIRTY </s>
-0.3010 <s> THREE </s>
-0.3010 <s> TWENTY </s>
-0.3010 <s> TWO </s>
-0.3010 <s> T_V </s>
-0.3010 <s> UNIFORM </s>
-0.3010 <s> UNMUTE </s>
-0.3010 <s> UNSHUFFLE </s>
-0.3010 <s> UP </s>
-0.3010 <s> UPPER </s>
-0.3010 <s> VICTOR </s>
-0.3010 <s> VIDEOS </s>
-0.3010 <s> VOLUME </s>
-0.3010 <s> WEATHER </s>
-0.3010 <s> WHISKEY </s>
-0.3010 <s> X_B_M_C </s>
-0.3010 <s> X_RAY </s>
-0.3010 <s> YANKEE </s>
-0.3010 <s> ZERO </s>
-0.3010 <s> ZULU </s>

\end\
