Language model created by QuickLM on Mon Jan 28 06:09:24 EST 2013
Copyright (c) 1996-2010 Carnegie Mellon University and Alexander I. Rudnicky

The model is in standard ARPA format, designed by Doug Paul while he was at MITRE.

The code that was used to produce this language model is available in Open Source.
Please visit http://www.speech.cs.cmu.edu/tools/ for more information

The (fixed) discount mass is 0.5. The backoffs are computed using the ratio method.
This model based on a corpus of 90 sentences and 91 words

\data\
ngram 1=91
ngram 2=178
ngram 3=89

\1-grams:
-2.7324 0 -0.2218
-2.7324 1 -0.2218
-2.7324 2 -0.2218
-2.7324 3 -0.2218
-2.7324 4 -0.2218
-2.7324 5 -0.2218
-2.7324 6 -0.2218
-2.7324 7 -0.2218
-2.7324 8 -0.2218
-2.7324 9 -0.2218
-0.7782 </s> -0.3010
-0.7782 <s> -0.2218
-2.7324 A -0.2218
-2.7324 ALL -0.2218
-2.7324 B -0.2218
-2.4314 BACK -0.2218
-2.7324 C -0.2218
-2.7324 CLEAR -0.2218
-2.7324 COLON -0.2218
-2.7324 COMMA -0.2218
-2.7324 CONTEXT -0.2218
-2.7324 D -0.2218
-2.7324 DONE -0.2218
-2.7324 DOT -0.2218
-2.7324 DOWN -0.2218
-2.7324 E -0.2218
-2.7324 EIGHTY -0.2218
-2.7324 F -0.2218
-2.7324 FIFTY -0.2218
-2.7324 FIVE -0.2218
-2.7324 FORTY -0.2218
-2.7324 FOUR -0.2218
-2.7324 G -0.2218
-2.7324 H -0.2218
-2.7324 HOME -0.2218
-2.7324 HYPHEN -0.2218
-2.7324 I -0.2218
-2.7324 J -0.2218
-2.7324 K -0.2218
-2.7324 L -0.2218
-2.7324 LEFT -0.2218
-2.7324 M -0.2218
-2.7324 MAX -0.2218
-2.7324 MUSIC -0.2218
-2.7324 MUTE -0.2218
-2.7324 N -0.2218
-2.7324 NEXT -0.2218
-2.7324 NINETY -0.2218
-2.7324 NORMAL -0.2218
-2.7324 O -0.2218
-2.7324 OFF -0.2218
-2.7324 OKAY -0.2218
-2.7324 ONE -0.2218
-2.7324 P -0.2218
-2.7324 PAUSE -0.2218
-2.7324 PICTURES -0.2218
-2.7324 PLAY -0.2218
-2.7324 PREVIOUS -0.2218
-2.7324 PROGRAMS -0.2218
-2.7324 Q -0.2218
-2.7324 R -0.2218
-2.7324 REPEAT -0.2218
-2.7324 RIGHT -0.2218
-2.7324 S -0.2218
-2.7324 SELECT -0.2218
-2.7324 SETTINGS -0.2218
-2.7324 SEVENTY -0.2218
-2.7324 SHUFFLE -0.2218
-2.7324 SIXTY -0.2218
-2.7324 SPACE -0.2218
-2.7324 STOP -0.2218
-2.7324 T -0.2218
-2.7324 TEN -0.2218
-2.7324 THIRTY -0.2218
-2.7324 THREE -0.2218
-2.7324 TWENTY -0.2218
-2.7324 TWO -0.2218
-2.7324 T_V -0.2218
-2.7324 U -0.2218
-2.7324 UNMUTE -0.2218
-2.7324 UNSHUFFLE -0.2218
-2.7324 UP -0.2218
-2.7324 V -0.2218
-2.7324 VIDEOS -0.2218
-2.7324 VOLUME -0.2218
-2.7324 W -0.2218
-2.7324 WEATHER -0.2218
-2.7324 X -0.2218
-2.7324 X_B_M_C -0.2218
-2.7324 Y -0.2218
-2.7324 Z -0.2218

\2-grams:
-0.3010 0 </s> -0.3010
-0.3010 1 </s> -0.3010
-0.3010 2 </s> -0.3010
-0.3010 3 </s> -0.3010
-0.3010 4 </s> -0.3010
-0.3010 5 </s> -0.3010
-0.3010 6 </s> -0.3010
-0.3010 7 </s> -0.3010
-0.3010 8 </s> -0.3010
-0.3010 9 </s> -0.3010
-2.2553 <s> 0 0.0000
-2.2553 <s> 1 0.0000
-2.2553 <s> 2 0.0000
-2.2553 <s> 3 0.0000
-2.2553 <s> 4 0.0000
-2.2553 <s> 5 0.0000
-2.2553 <s> 6 0.0000
-2.2553 <s> 7 0.0000
-2.2553 <s> 8 0.0000
-2.2553 <s> 9 0.0000
-2.2553 <s> A 0.0000
-2.2553 <s> ALL 0.0000
-2.2553 <s> B 0.0000
-1.9542 <s> BACK 0.0000
-2.2553 <s> C 0.0000
-2.2553 <s> CLEAR 0.0000
-2.2553 <s> COLON 0.0000
-2.2553 <s> COMMA 0.0000
-2.2553 <s> CONTEXT 0.0000
-2.2553 <s> D 0.0000
-2.2553 <s> DONE 0.0000
-2.2553 <s> DOT 0.0000
-2.2553 <s> DOWN 0.0000
-2.2553 <s> E 0.0000
-2.2553 <s> EIGHTY 0.0000
-2.2553 <s> F 0.0000
-2.2553 <s> FIFTY 0.0000
-2.2553 <s> FIVE 0.0000
-2.2553 <s> FORTY 0.0000
-2.2553 <s> FOUR 0.0000
-2.2553 <s> G 0.0000
-2.2553 <s> H 0.0000
-2.2553 <s> HOME 0.0000
-2.2553 <s> HYPHEN 0.0000
-2.2553 <s> I 0.0000
-2.2553 <s> J 0.0000
-2.2553 <s> K 0.0000
-2.2553 <s> L 0.0000
-2.2553 <s> LEFT 0.0000
-2.2553 <s> M 0.0000
-2.2553 <s> MAX 0.0000
-2.2553 <s> MUSIC 0.0000
-2.2553 <s> MUTE 0.0000
-2.2553 <s> N 0.0000
-2.2553 <s> NEXT 0.0000
-2.2553 <s> NINETY 0.0000
-2.2553 <s> NORMAL 0.0000
-2.2553 <s> O 0.0000
-2.2553 <s> OFF 0.0000
-2.2553 <s> OKAY 0.0000
-2.2553 <s> ONE 0.0000
-2.2553 <s> P 0.0000
-2.2553 <s> PAUSE 0.0000
-2.2553 <s> PICTURES 0.0000
-2.2553 <s> PLAY 0.0000
-2.2553 <s> PREVIOUS 0.0000
-2.2553 <s> PROGRAMS 0.0000
-2.2553 <s> Q 0.0000
-2.2553 <s> R 0.0000
-2.2553 <s> REPEAT 0.0000
-2.2553 <s> RIGHT 0.0000
-2.2553 <s> S 0.0000
-2.2553 <s> SELECT 0.0000
-2.2553 <s> SETTINGS 0.0000
-2.2553 <s> SEVENTY 0.0000
-2.2553 <s> SHUFFLE 0.0000
-2.2553 <s> SIXTY 0.0000
-2.2553 <s> SPACE 0.0000
-2.2553 <s> STOP 0.0000
-2.2553 <s> T 0.0000
-2.2553 <s> TEN 0.0000
-2.2553 <s> THIRTY 0.0000
-2.2553 <s> THREE 0.0000
-2.2553 <s> TWENTY 0.0000
-2.2553 <s> TWO 0.0000
-2.2553 <s> T_V 0.0000
-2.2553 <s> U 0.0000
-2.2553 <s> UNMUTE 0.0000
-2.2553 <s> UNSHUFFLE 0.0000
-2.2553 <s> UP 0.0000
-2.2553 <s> V 0.0000
-2.2553 <s> VIDEOS 0.0000
-2.2553 <s> VOLUME 0.0000
-2.2553 <s> W 0.0000
-2.2553 <s> WEATHER 0.0000
-2.2553 <s> X 0.0000
-2.2553 <s> X_B_M_C 0.0000
-2.2553 <s> Y 0.0000
-2.2553 <s> Z 0.0000
-0.3010 A </s> -0.3010
-0.3010 ALL </s> -0.3010
-0.3010 B </s> -0.3010
-0.3010 BACK </s> -0.3010
-0.3010 C </s> -0.3010
-0.3010 CLEAR </s> -0.3010
-0.3010 COLON </s> -0.3010
-0.3010 COMMA </s> -0.3010
-0.3010 CONTEXT </s> -0.3010
-0.3010 D </s> -0.3010
-0.3010 DONE </s> -0.3010
-0.3010 DOT </s> -0.3010
-0.3010 DOWN </s> -0.3010
-0.3010 E </s> -0.3010
-0.3010 EIGHTY </s> -0.3010
-0.3010 F </s> -0.3010
-0.3010 FIFTY </s> -0.3010
-0.3010 FIVE </s> -0.3010
-0.3010 FORTY </s> -0.3010
-0.3010 FOUR </s> -0.3010
-0.3010 G </s> -0.3010
-0.3010 H </s> -0.3010
-0.3010 HOME </s> -0.3010
-0.3010 HYPHEN </s> -0.3010
-0.3010 I </s> -0.3010
-0.3010 J </s> -0.3010
-0.3010 K </s> -0.3010
-0.3010 L </s> -0.3010
-0.3010 LEFT </s> -0.3010
-0.3010 M </s> -0.3010
-0.3010 MAX </s> -0.3010
-0.3010 MUSIC </s> -0.3010
-0.3010 MUTE </s> -0.3010
-0.3010 N </s> -0.3010
-0.3010 NEXT </s> -0.3010
-0.3010 NINETY </s> -0.3010
-0.3010 NORMAL </s> -0.3010
-0.3010 O </s> -0.3010
-0.3010 OFF </s> -0.3010
-0.3010 OKAY </s> -0.3010
-0.3010 ONE </s> -0.3010
-0.3010 P </s> -0.3010
-0.3010 PAUSE </s> -0.3010
-0.3010 PICTURES </s> -0.3010
-0.3010 PLAY </s> -0.3010
-0.3010 PREVIOUS </s> -0.3010
-0.3010 PROGRAMS </s> -0.3010
-0.3010 Q </s> -0.3010
-0.3010 R </s> -0.3010
-0.3010 REPEAT </s> -0.3010
-0.3010 RIGHT </s> -0.3010
-0.3010 S </s> -0.3010
-0.3010 SELECT </s> -0.3010
-0.3010 SETTINGS </s> -0.3010
-0.3010 SEVENTY </s> -0.3010
-0.3010 SHUFFLE </s> -0.3010
-0.3010 SIXTY </s> -0.3010
-0.3010 SPACE </s> -0.3010
-0.3010 STOP </s> -0.3010
-0.3010 T </s> -0.3010
-0.3010 TEN </s> -0.3010
-0.3010 THIRTY </s> -0.3010
-0.3010 THREE </s> -0.3010
-0.3010 TWENTY </s> -0.3010
-0.3010 TWO </s> -0.3010
-0.3010 T_V </s> -0.3010
-0.3010 U </s> -0.3010
-0.3010 UNMUTE </s> -0.3010
-0.3010 UNSHUFFLE </s> -0.3010
-0.3010 UP </s> -0.3010
-0.3010 V </s> -0.3010
-0.3010 VIDEOS </s> -0.3010
-0.3010 VOLUME </s> -0.3010
-0.3010 W </s> -0.3010
-0.3010 WEATHER </s> -0.3010
-0.3010 X </s> -0.3010
-0.3010 X_B_M_C </s> -0.3010
-0.3010 Y </s> -0.3010
-0.3010 Z </s> -0.3010

\3-grams:
-0.3010 <s> 0 </s>
-0.3010 <s> 1 </s>
-0.3010 <s> 2 </s>
-0.3010 <s> 3 </s>
-0.3010 <s> 4 </s>
-0.3010 <s> 5 </s>
-0.3010 <s> 6 </s>
-0.3010 <s> 7 </s>
-0.3010 <s> 8 </s>
-0.3010 <s> 9 </s>
-0.3010 <s> A </s>
-0.3010 <s> ALL </s>
-0.3010 <s> B </s>
-0.3010 <s> BACK </s>
-0.3010 <s> C </s>
-0.3010 <s> CLEAR </s>
-0.3010 <s> COLON </s>
-0.3010 <s> COMMA </s>
-0.3010 <s> CONTEXT </s>
-0.3010 <s> D </s>
-0.3010 <s> DONE </s>
-0.3010 <s> DOT </s>
-0.3010 <s> DOWN </s>
-0.3010 <s> E </s>
-0.3010 <s> EIGHTY </s>
-0.3010 <s> F </s>
-0.3010 <s> FIFTY </s>
-0.3010 <s> FIVE </s>
-0.3010 <s> FORTY </s>
-0.3010 <s> FOUR </s>
-0.3010 <s> G </s>
-0.3010 <s> H </s>
-0.3010 <s> HOME </s>
-0.3010 <s> HYPHEN </s>
-0.3010 <s> I </s>
-0.3010 <s> J </s>
-0.3010 <s> K </s>
-0.3010 <s> L </s>
-0.3010 <s> LEFT </s>
-0.3010 <s> M </s>
-0.3010 <s> MAX </s>
-0.3010 <s> MUSIC </s>
-0.3010 <s> MUTE </s>
-0.3010 <s> N </s>
-0.3010 <s> NEXT </s>
-0.3010 <s> NINETY </s>
-0.3010 <s> NORMAL </s>
-0.3010 <s> O </s>
-0.3010 <s> OFF </s>
-0.3010 <s> OKAY </s>
-0.3010 <s> ONE </s>
-0.3010 <s> P </s>
-0.3010 <s> PAUSE </s>
-0.3010 <s> PICTURES </s>
-0.3010 <s> PLAY </s>
-0.3010 <s> PREVIOUS </s>
-0.3010 <s> PROGRAMS </s>
-0.3010 <s> Q </s>
-0.3010 <s> R </s>
-0.3010 <s> REPEAT </s>
-0.3010 <s> RIGHT </s>
-0.3010 <s> S </s>
-0.3010 <s> SELECT </s>
-0.3010 <s> SETTINGS </s>
-0.3010 <s> SEVENTY </s>
-0.3010 <s> SHUFFLE </s>
-0.3010 <s> SIXTY </s>
-0.3010 <s> SPACE </s>
-0.3010 <s> STOP </s>
-0.3010 <s> T </s>
-0.3010 <s> TEN </s>
-0.3010 <s> THIRTY </s>
-0.3010 <s> THREE </s>
-0.3010 <s> TWENTY </s>
-0.3010 <s> TWO </s>
-0.3010 <s> T_V </s>
-0.3010 <s> U </s>
-0.3010 <s> UNMUTE </s>
-0.3010 <s> UNSHUFFLE </s>
-0.3010 <s> UP </s>
-0.3010 <s> V </s>
-0.3010 <s> VIDEOS </s>
-0.3010 <s> VOLUME </s>
-0.3010 <s> W </s>
-0.3010 <s> WEATHER </s>
-0.3010 <s> X </s>
-0.3010 <s> X_B_M_C </s>
-0.3010 <s> Y </s>
-0.3010 <s> Z </s>

\end\
