Language model created by QuickLM on Mon Jan 21 05:51:56 EST 2013
Copyright (c) 1996-2010 Carnegie Mellon University and Alexander I. Rudnicky

The model is in standard ARPA format, designed by Doug Paul while he was at MITRE.

The code that was used to produce this language model is available in Open Source.
Please visit http://www.speech.cs.cmu.edu/tools/ for more information

The (fixed) discount mass is 0.5. The backoffs are computed using the ratio method.
This model based on a corpus of 45 sentences and 47 words

\data\
ngram 1=47
ngram 2=90
ngram 3=45

\1-grams:
-0.7782 </s> -0.3010
-0.7782 <s> -0.2218
-2.4314 ALL -0.2218
-2.4314 BACK -0.2218
-2.4314 CONTEXT -0.2218
-2.4314 DOWN -0.2218
-2.4314 EIGHTY -0.2218
-2.4314 FIFTY -0.2218
-2.4314 FIVE -0.2218
-2.4314 FOUR -0.2218
-2.4314 FOURTY -0.2218
-2.4314 HOME -0.2218
-2.4314 LEFT -0.2218
-2.4314 MAX -0.2218
-2.4314 MUSIC -0.2218
-2.4314 MUTE -0.2218
-2.4314 NEXT -0.2218
-2.4314 NINETY -0.2218
-2.4314 OFF -0.2218
-2.4314 OKAY -0.2218
-2.4314 ONE -0.2218
-2.4314 PAUSE -0.2218
-2.4314 PICTURES -0.2218
-2.4314 PLAY -0.2218
-2.4314 PREVIOUS -0.2218
-2.4314 PROGRAMS -0.2218
-2.4314 REPEAT -0.2218
-2.4314 RIGHT -0.2218
-2.4314 SELECT -0.2218
-2.4314 SETTINGS -0.2218
-2.4314 SEVENTY -0.2218
-2.4314 SHUFFLE -0.2218
-2.4314 SIXTY -0.2218
-2.4314 STOP -0.2218
-2.4314 TEN -0.2218
-2.4314 THIRTY -0.2218
-2.4314 THREE -0.2218
-2.4314 TWENTY -0.2218
-2.4314 TWO -0.2218
-2.4314 T_V -0.2218
-2.4314 UNMUTE -0.2218
-2.4314 UNSHUFFLE -0.2218
-2.4314 UP -0.2218
-2.4314 VIDEOS -0.2218
-2.4314 VOLUME -0.2218
-2.4314 WEATHER -0.2218
-2.4314 X_B_M_C -0.2218

\2-grams:
-1.9542 <s> ALL 0.0000
-1.9542 <s> BACK 0.0000
-1.9542 <s> CONTEXT 0.0000
-1.9542 <s> DOWN 0.0000
-1.9542 <s> EIGHTY 0.0000
-1.9542 <s> FIFTY 0.0000
-1.9542 <s> FIVE 0.0000
-1.9542 <s> FOUR 0.0000
-1.9542 <s> FOURTY 0.0000
-1.9542 <s> HOME 0.0000
-1.9542 <s> LEFT 0.0000
-1.9542 <s> MAX 0.0000
-1.9542 <s> MUSIC 0.0000
-1.9542 <s> MUTE 0.0000
-1.9542 <s> NEXT 0.0000
-1.9542 <s> NINETY 0.0000
-1.9542 <s> OFF 0.0000
-1.9542 <s> OKAY 0.0000
-1.9542 <s> ONE 0.0000
-1.9542 <s> PAUSE 0.0000
-1.9542 <s> PICTURES 0.0000
-1.9542 <s> PLAY 0.0000
-1.9542 <s> PREVIOUS 0.0000
-1.9542 <s> PROGRAMS 0.0000
-1.9542 <s> REPEAT 0.0000
-1.9542 <s> RIGHT 0.0000
-1.9542 <s> SELECT 0.0000
-1.9542 <s> SETTINGS 0.0000
-1.9542 <s> SEVENTY 0.0000
-1.9542 <s> SHUFFLE 0.0000
-1.9542 <s> SIXTY 0.0000
-1.9542 <s> STOP 0.0000
-1.9542 <s> TEN 0.0000
-1.9542 <s> THIRTY 0.0000
-1.9542 <s> THREE 0.0000
-1.9542 <s> TWENTY 0.0000
-1.9542 <s> TWO 0.0000
-1.9542 <s> T_V 0.0000
-1.9542 <s> UNMUTE 0.0000
-1.9542 <s> UNSHUFFLE 0.0000
-1.9542 <s> UP 0.0000
-1.9542 <s> VIDEOS 0.0000
-1.9542 <s> VOLUME 0.0000
-1.9542 <s> WEATHER 0.0000
-1.9542 <s> X_B_M_C 0.0000
-0.3010 ALL </s> -0.3010
-0.3010 BACK </s> -0.3010
-0.3010 CONTEXT </s> -0.3010
-0.3010 DOWN </s> -0.3010
-0.3010 EIGHTY </s> -0.3010
-0.3010 FIFTY </s> -0.3010
-0.3010 FIVE </s> -0.3010
-0.3010 FOUR </s> -0.3010
-0.3010 FOURTY </s> -0.3010
-0.3010 HOME </s> -0.3010
-0.3010 LEFT </s> -0.3010
-0.3010 MAX </s> -0.3010
-0.3010 MUSIC </s> -0.3010
-0.3010 MUTE </s> -0.3010
-0.3010 NEXT </s> -0.3010
-0.3010 NINETY </s> -0.3010
-0.3010 OFF </s> -0.3010
-0.3010 OKAY </s> -0.3010
-0.3010 ONE </s> -0.3010
-0.3010 PAUSE </s> -0.3010
-0.3010 PICTURES </s> -0.3010
-0.3010 PLAY </s> -0.3010
-0.3010 PREVIOUS </s> -0.3010
-0.3010 PROGRAMS </s> -0.3010
-0.3010 REPEAT </s> -0.3010
-0.3010 RIGHT </s> -0.3010
-0.3010 SELECT </s> -0.3010
-0.3010 SETTINGS </s> -0.3010
-0.3010 SEVENTY </s> -0.3010
-0.3010 SHUFFLE </s> -0.3010
-0.3010 SIXTY </s> -0.3010
-0.3010 STOP </s> -0.3010
-0.3010 TEN </s> -0.3010
-0.3010 THIRTY </s> -0.3010
-0.3010 THREE </s> -0.3010
-0.3010 TWENTY </s> -0.3010
-0.3010 TWO </s> -0.3010
-0.3010 T_V </s> -0.3010
-0.3010 UNMUTE </s> -0.3010
-0.3010 UNSHUFFLE </s> -0.3010
-0.3010 UP </s> -0.3010
-0.3010 VIDEOS </s> -0.3010
-0.3010 VOLUME </s> -0.3010
-0.3010 WEATHER </s> -0.3010
-0.3010 X_B_M_C </s> -0.3010

\3-grams:
-0.3010 <s> ALL </s>
-0.3010 <s> BACK </s>
-0.3010 <s> CONTEXT </s>
-0.3010 <s> DOWN </s>
-0.3010 <s> EIGHTY </s>
-0.3010 <s> FIFTY </s>
-0.3010 <s> FIVE </s>
-0.3010 <s> FOUR </s>
-0.3010 <s> FOURTY </s>
-0.3010 <s> HOME </s>
-0.3010 <s> LEFT </s>
-0.3010 <s> MAX </s>
-0.3010 <s> MUSIC </s>
-0.3010 <s> MUTE </s>
-0.3010 <s> NEXT </s>
-0.3010 <s> NINETY </s>
-0.3010 <s> OFF </s>
-0.3010 <s> OKAY </s>
-0.3010 <s> ONE </s>
-0.3010 <s> PAUSE </s>
-0.3010 <s> PICTURES </s>
-0.3010 <s> PLAY </s>
-0.3010 <s> PREVIOUS </s>
-0.3010 <s> PROGRAMS </s>
-0.3010 <s> REPEAT </s>
-0.3010 <s> RIGHT </s>
-0.3010 <s> SELECT </s>
-0.3010 <s> SETTINGS </s>
-0.3010 <s> SEVENTY </s>
-0.3010 <s> SHUFFLE </s>
-0.3010 <s> SIXTY </s>
-0.3010 <s> STOP </s>
-0.3010 <s> TEN </s>
-0.3010 <s> THIRTY </s>
-0.3010 <s> THREE </s>
-0.3010 <s> TWENTY </s>
-0.3010 <s> TWO </s>
-0.3010 <s> T_V </s>
-0.3010 <s> UNMUTE </s>
-0.3010 <s> UNSHUFFLE </s>
-0.3010 <s> UP </s>
-0.3010 <s> VIDEOS </s>
-0.3010 <s> VOLUME </s>
-0.3010 <s> WEATHER </s>
-0.3010 <s> X_B_M_C </s>

\end\
