Language model created by QuickLM on Tue Jan 29 06:27:00 EST 2013
Copyright (c) 1996-2010 Carnegie Mellon University and Alexander I. Rudnicky

The model is in standard ARPA format, designed by Doug Paul while he was at MITRE.

The code that was used to produce this language model is available in Open Source.
Please visit http://www.speech.cs.cmu.edu/tools/ for more information

The (fixed) discount mass is 0.5. The backoffs are computed using the ratio method.
This model based on a corpus of 90 sentences and 92 words

\data\
ngram 1=92
ngram 2=180
ngram 3=90

\1-grams:
-0.7782 </s> -0.3010
-0.7782 <s> -0.2218
-2.7324 ACCEPT -0.2218
-2.7324 ALL -0.2218
-2.7324 ALPHA -0.2218
-2.7324 BACK -0.2218
-2.7324 BRAVO -0.2218
-2.7324 CANCEL -0.2218
-2.7324 CHARLIE -0.2218
-2.7324 CLEAR -0.2218
-2.7324 COLON -0.2218
-2.7324 COMMA -0.2218
-2.7324 CONTEXT -0.2218
-2.7324 DELETE -0.2218
-2.7324 DELTA -0.2218
-2.7324 DOT -0.2218
-2.7324 DOWN -0.2218
-2.7324 ECHO -0.2218
-2.7324 EIGHT -0.2218
-2.7324 EIGHTY -0.2218
-2.7324 FIFTY -0.2218
-2.7324 FIVE -0.2218
-2.7324 FORTY -0.2218
-2.7324 FOUR -0.2218
-2.7324 FOXTROT -0.2218
-2.7324 GOLF -0.2218
-2.7324 HOME -0.2218
-2.7324 HOTEL -0.2218
-2.7324 HYPHEN -0.2218
-2.7324 INDIA -0.2218
-2.7324 JULIET -0.2218
-2.7324 KILO -0.2218
-2.7324 LEFT -0.2218
-2.7324 LIMA -0.2218
-2.7324 LOWER -0.2218
-2.7324 MAX -0.2218
-2.7324 MENU -0.2218
-2.7324 MIKE -0.2218
-2.7324 MUSIC -0.2218
-2.7324 MUTE -0.2218
-2.7324 NEXT -0.2218
-2.7324 NINE -0.2218
-2.7324 NINETY -0.2218
-2.7324 NORMAL -0.2218
-2.7324 NOVEMBER -0.2218
-2.7324 OFF -0.2218
-2.7324 OKAY -0.2218
-2.7324 ONE -0.2218
-2.7324 OSCAR -0.2218
-2.7324 PAPA -0.2218
-2.7324 PAUSE -0.2218
-2.7324 PICTURES -0.2218
-2.7324 PLAY -0.2218
-2.7324 PREVIOUS -0.2218
-2.7324 PROGRAMS -0.2218
-2.7324 QUEBEC -0.2218
-2.7324 REPEAT -0.2218
-2.7324 RIGHT -0.2218
-2.7324 ROMEO -0.2218
-2.7324 SELECT -0.2218
-2.7324 SETTINGS -0.2218
-2.7324 SEVEN -0.2218
-2.7324 SEVENTY -0.2218
-2.7324 SHUFFLE -0.2218
-2.7324 SIERRA -0.2218
-2.7324 SIX -0.2218
-2.7324 SIXTY -0.2218
-2.7324 SPACE -0.2218
-2.7324 SPELL -0.2218
-2.7324 STOP -0.2218
-2.7324 TANGO -0.2218
-2.7324 TEN -0.2218
-2.7324 THIRTY -0.2218
-2.7324 THREE -0.2218
-2.7324 TWENTY -0.2218
-2.7324 TWO -0.2218
-2.7324 T_V -0.2218
-2.7324 UNIFORM -0.2218
-2.7324 UNMUTE -0.2218
-2.7324 UNSHUFFLE -0.2218
-2.7324 UP -0.2218
-2.7324 UPPER -0.2218
-2.7324 VICTOR -0.2218
-2.7324 VIDEOS -0.2218
-2.7324 VOLUME -0.2218
-2.7324 WEATHER -0.2218
-2.7324 WHISKEY -0.2218
-2.7324 X_B_M_C -0.2218
-2.7324 X_RAY -0.2218
-2.7324 YANKEE -0.2218
-2.7324 ZERO -0.2218
-2.7324 ZULU -0.2218

\2-grams:
-2.2553 <s> ACCEPT 0.0000
-2.2553 <s> ALL 0.0000
-2.2553 <s> ALPHA 0.0000
-2.2553 <s> BACK 0.0000
-2.2553 <s> BRAVO 0.0000
-2.2553 <s> CANCEL 0.0000
-2.2553 <s> CHARLIE 0.0000
-2.2553 <s> CLEAR 0.0000
-2.2553 <s> COLON 0.0000
-2.2553 <s> COMMA 0.0000
-2.2553 <s> CONTEXT 0.0000
-2.2553 <s> DELETE 0.0000
-2.2553 <s> DELTA 0.0000
-2.2553 <s> DOT 0.0000
-2.2553 <s> DOWN 0.0000
-2.2553 <s> ECHO 0.0000
-2.2553 <s> EIGHT 0.0000
-2.2553 <s> EIGHTY 0.0000
-2.2553 <s> FIFTY 0.0000
-2.2553 <s> FIVE 0.0000
-2.2553 <s> FORTY 0.0000
-2.2553 <s> FOUR 0.0000
-2.2553 <s> FOXTROT 0.0000
-2.2553 <s> GOLF 0.0000
-2.2553 <s> HOME 0.0000
-2.2553 <s> HOTEL 0.0000
-2.2553 <s> HYPHEN 0.0000
-2.2553 <s> INDIA 0.0000
-2.2553 <s> JULIET 0.0000
-2.2553 <s> KILO 0.0000
-2.2553 <s> LEFT 0.0000
-2.2553 <s> LIMA 0.0000
-2.2553 <s> LOWER 0.0000
-2.2553 <s> MAX 0.0000
-2.2553 <s> MENU 0.0000
-2.2553 <s> MIKE 0.0000
-2.2553 <s> MUSIC 0.0000
-2.2553 <s> MUTE 0.0000
-2.2553 <s> NEXT 0.0000
-2.2553 <s> NINE 0.0000
-2.2553 <s> NINETY 0.0000
-2.2553 <s> NORMAL 0.0000
-2.2553 <s> NOVEMBER 0.0000
-2.2553 <s> OFF 0.0000
-2.2553 <s> OKAY 0.0000
-2.2553 <s> ONE 0.0000
-2.2553 <s> OSCAR 0.0000
-2.2553 <s> PAPA 0.0000
-2.2553 <s> PAUSE 0.0000
-2.2553 <s> PICTURES 0.0000
-2.2553 <s> PLAY 0.0000
-2.2553 <s> PREVIOUS 0.0000
-2.2553 <s> PROGRAMS 0.0000
-2.2553 <s> QUEBEC 0.0000
-2.2553 <s> REPEAT 0.0000
-2.2553 <s> RIGHT 0.0000
-2.2553 <s> ROMEO 0.0000
-2.2553 <s> SELECT 0.0000
-2.2553 <s> SETTINGS 0.0000
-2.2553 <s> SEVEN 0.0000
-2.2553 <s> SEVENTY 0.0000
-2.2553 <s> SHUFFLE 0.0000
-2.2553 <s> SIERRA 0.0000
-2.2553 <s> SIX 0.0000
-2.2553 <s> SIXTY 0.0000
-2.2553 <s> SPACE 0.0000
-2.2553 <s> SPELL 0.0000
-2.2553 <s> STOP 0.0000
-2.2553 <s> TANGO 0.0000
-2.2553 <s> TEN 0.0000
-2.2553 <s> THIRTY 0.0000
-2.2553 <s> THREE 0.0000
-2.2553 <s> TWENTY 0.0000
-2.2553 <s> TWO 0.0000
-2.2553 <s> T_V 0.0000
-2.2553 <s> UNIFORM 0.0000
-2.2553 <s> UNMUTE 0.0000
-2.2553 <s> UNSHUFFLE 0.0000
-2.2553 <s> UP 0.0000
-2.2553 <s> UPPER 0.0000
-2.2553 <s> VICTOR 0.0000
-2.2553 <s> VIDEOS 0.0000
-2.2553 <s> VOLUME 0.0000
-2.2553 <s> WEATHER 0.0000
-2.2553 <s> WHISKEY 0.0000
-2.2553 <s> X_B_M_C 0.0000
-2.2553 <s> X_RAY 0.0000
-2.2553 <s> YANKEE 0.0000
-2.2553 <s> ZERO 0.0000
-2.2553 <s> ZULU 0.0000
-0.3010 ACCEPT </s> -0.3010
-0.3010 ALL </s> -0.3010
-0.3010 ALPHA </s> -0.3010
-0.3010 BACK </s> -0.3010
-0.3010 BRAVO </s> -0.3010
-0.3010 CANCEL </s> -0.3010
-0.3010 CHARLIE </s> -0.3010
-0.3010 CLEAR </s> -0.3010
-0.3010 COLON </s> -0.3010
-0.3010 COMMA </s> -0.3010
-0.3010 CONTEXT </s> -0.3010
-0.3010 DELETE </s> -0.3010
-0.3010 DELTA </s> -0.3010
-0.3010 DOT </s> -0.3010
-0.3010 DOWN </s> -0.3010
-0.3010 ECHO </s> -0.3010
-0.3010 EIGHT </s> -0.3010
-0.3010 EIGHTY </s> -0.3010
-0.3010 FIFTY </s> -0.3010
-0.3010 FIVE </s> -0.3010
-0.3010 FORTY </s> -0.3010
-0.3010 FOUR </s> -0.3010
-0.3010 FOXTROT </s> -0.3010
-0.3010 GOLF </s> -0.3010
-0.3010 HOME </s> -0.3010
-0.3010 HOTEL </s> -0.3010
-0.3010 HYPHEN </s> -0.3010
-0.3010 INDIA </s> -0.3010
-0.3010 JULIET </s> -0.3010
-0.3010 KILO </s> -0.3010
-0.3010 LEFT </s> -0.3010
-0.3010 LIMA </s> -0.3010
-0.3010 LOWER </s> -0.3010
-0.3010 MAX </s> -0.3010
-0.3010 MENU </s> -0.3010
-0.3010 MIKE </s> -0.3010
-0.3010 MUSIC </s> -0.3010
-0.3010 MUTE </s> -0.3010
-0.3010 NEXT </s> -0.3010
-0.3010 NINE </s> -0.3010
-0.3010 NINETY </s> -0.3010
-0.3010 NORMAL </s> -0.3010
-0.3010 NOVEMBER </s> -0.3010
-0.3010 OFF </s> -0.3010
-0.3010 OKAY </s> -0.3010
-0.3010 ONE </s> -0.3010
-0.3010 OSCAR </s> -0.3010
-0.3010 PAPA </s> -0.3010
-0.3010 PAUSE </s> -0.3010
-0.3010 PICTURES </s> -0.3010
-0.3010 PLAY </s> -0.3010
-0.3010 PREVIOUS </s> -0.3010
-0.3010 PROGRAMS </s> -0.3010
-0.3010 QUEBEC </s> -0.3010
-0.3010 REPEAT </s> -0.3010
-0.3010 RIGHT </s> -0.3010
-0.3010 ROMEO </s> -0.3010
-0.3010 SELECT </s> -0.3010
-0.3010 SETTINGS </s> -0.3010
-0.3010 SEVEN </s> -0.3010
-0.3010 SEVENTY </s> -0.3010
-0.3010 SHUFFLE </s> -0.3010
-0.3010 SIERRA </s> -0.3010
-0.3010 SIX </s> -0.3010
-0.3010 SIXTY </s> -0.3010
-0.3010 SPACE </s> -0.3010
-0.3010 SPELL </s> -0.3010
-0.3010 STOP </s> -0.3010
-0.3010 TANGO </s> -0.3010
-0.3010 TEN </s> -0.3010
-0.3010 THIRTY </s> -0.3010
-0.3010 THREE </s> -0.3010
-0.3010 TWENTY </s> -0.3010
-0.3010 TWO </s> -0.3010
-0.3010 T_V </s> -0.3010
-0.3010 UNIFORM </s> -0.3010
-0.3010 UNMUTE </s> -0.3010
-0.3010 UNSHUFFLE </s> -0.3010
-0.3010 UP </s> -0.3010
-0.3010 UPPER </s> -0.3010
-0.3010 VICTOR </s> -0.3010
-0.3010 VIDEOS </s> -0.3010
-0.3010 VOLUME </s> -0.3010
-0.3010 WEATHER </s> -0.3010
-0.3010 WHISKEY </s> -0.3010
-0.3010 X_B_M_C </s> -0.3010
-0.3010 X_RAY </s> -0.3010
-0.3010 YANKEE </s> -0.3010
-0.3010 ZERO </s> -0.3010
-0.3010 ZULU </s> -0.3010

\3-grams:
-0.3010 <s> ACCEPT </s>
-0.3010 <s> ALL </s>
-0.3010 <s> ALPHA </s>
-0.3010 <s> BACK </s>
-0.3010 <s> BRAVO </s>
-0.3010 <s> CANCEL </s>
-0.3010 <s> CHARLIE </s>
-0.3010 <s> CLEAR </s>
-0.3010 <s> COLON </s>
-0.3010 <s> COMMA </s>
-0.3010 <s> CONTEXT </s>
-0.3010 <s> DELETE </s>
-0.3010 <s> DELTA </s>
-0.3010 <s> DOT </s>
-0.3010 <s> DOWN </s>
-0.3010 <s> ECHO </s>
-0.3010 <s> EIGHT </s>
-0.3010 <s> EIGHTY </s>
-0.3010 <s> FIFTY </s>
-0.3010 <s> FIVE </s>
-0.3010 <s> FORTY </s>
-0.3010 <s> FOUR </s>
-0.3010 <s> FOXTROT </s>
-0.3010 <s> GOLF </s>
-0.3010 <s> HOME </s>
-0.3010 <s> HOTEL </s>
-0.3010 <s> HYPHEN </s>
-0.3010 <s> INDIA </s>
-0.3010 <s> JULIET </s>
-0.3010 <s> KILO </s>
-0.3010 <s> LEFT </s>
-0.3010 <s> LIMA </s>
-0.3010 <s> LOWER </s>
-0.3010 <s> MAX </s>
-0.3010 <s> MENU </s>
-0.3010 <s> MIKE </s>
-0.3010 <s> MUSIC </s>
-0.3010 <s> MUTE </s>
-0.3010 <s> NEXT </s>
-0.3010 <s> NINE </s>
-0.3010 <s> NINETY </s>
-0.3010 <s> NORMAL </s>
-0.3010 <s> NOVEMBER </s>
-0.3010 <s> OFF </s>
-0.3010 <s> OKAY </s>
-0.3010 <s> ONE </s>
-0.3010 <s> OSCAR </s>
-0.3010 <s> PAPA </s>
-0.3010 <s> PAUSE </s>
-0.3010 <s> PICTURES </s>
-0.3010 <s> PLAY </s>
-0.3010 <s> PREVIOUS </s>
-0.3010 <s> PROGRAMS </s>
-0.3010 <s> QUEBEC </s>
-0.3010 <s> REPEAT </s>
-0.3010 <s> RIGHT </s>
-0.3010 <s> ROMEO </s>
-0.3010 <s> SELECT </s>
-0.3010 <s> SETTINGS </s>
-0.3010 <s> SEVEN </s>
-0.3010 <s> SEVENTY </s>
-0.3010 <s> SHUFFLE </s>
-0.3010 <s> SIERRA </s>
-0.3010 <s> SIX </s>
-0.3010 <s> SIXTY </s>
-0.3010 <s> SPACE </s>
-0.3010 <s> SPELL </s>
-0.3010 <s> STOP </s>
-0.3010 <s> TANGO </s>
-0.3010 <s> TEN </s>
-0.3010 <s> THIRTY </s>
-0.3010 <s> THREE </s>
-0.3010 <s> TWENTY </s>
-0.3010 <s> TWO </s>
-0.3010 <s> T_V </s>
-0.3010 <s> UNIFORM </s>
-0.3010 <s> UNMUTE </s>
-0.3010 <s> UNSHUFFLE </s>
-0.3010 <s> UP </s>
-0.3010 <s> UPPER </s>
-0.3010 <s> VICTOR </s>
-0.3010 <s> VIDEOS </s>
-0.3010 <s> VOLUME </s>
-0.3010 <s> WEATHER </s>
-0.3010 <s> WHISKEY </s>
-0.3010 <s> X_B_M_C </s>
-0.3010 <s> X_RAY </s>
-0.3010 <s> YANKEE </s>
-0.3010 <s> ZERO </s>
-0.3010 <s> ZULU </s>

\end\
